digraph Tree {
node [shape=box, style="filled, rounded", color="black", fontname="helvetica"] ;
edge [fontname="helvetica"] ;
0 [label="scent_intensity <= 5.0\ngini = 0.667\nsamples = 100\nvalue = [33, 33, 34]\nclass = Rose", fillcolor="#fdfcff"] ;
1 [label="petal_count <= 18.5\ngini = 0.5\nsamples = 66\nvalue = [33, 33, 0]\nclass = Chrysanthemum", fillcolor="#ffffff"] ;
0 -> 1 [labeldistance=2.5, labelangle=45, headlabel="True"] ;
2 [label="gini = 0.0\nsamples = 33\nvalue = [0, 33, 0]\nclass = Lotus", fillcolor="#39e581"] ;
1 -> 2 ;
3 [label="gini = 0.0\nsamples = 33\nvalue = [33, 0, 0]\nclass = Chrysanthemum", fillcolor="#e58139"] ;
1 -> 3 ;
4 [label="gini = 0.0\nsamples = 34\nvalue = [0, 0, 34]\nclass = Rose", fillcolor="#8139e5"] ;
0 -> 4 [labeldistance=2.5, labelangle=-45, headlabel="False"] ;
}